digraph Tree {
node [shape=box, style="filled, rounded", color="black", fontname=helvetica] ;
edge [fontname=helvetica] ;
0 [label="petal length (cm) <= 2.6\ngini = 0.66\nsamples = 95\nvalue = [45, 44, 61]\nclass = virginica", fillcolor="#ece1fb"] ;
1 [label="gini = 0.0\nsamples = 26\nvalue = [45, 0, 0]\nclass = setosa", fillcolor="#e58139"] ;
0 -> 1 [labeldistance=2.5, labelangle=45, headlabel="True"] ;
2 [label="petal width (cm) <= 1.65\ngini = 0.49\nsamples = 69\nvalue = [0, 44, 61]\nclass = virginica", fillcolor="#dcc8f8"] ;
0 -> 2 [labeldistance=2.5, labelangle=-45, headlabel="False"] ;
3 [label="petal length (cm) <= 4.95\ngini = 0.21\nsamples = 36\nvalue = [0, 44, 6]\nclass = versicolor", fillcolor="#54e992"] ;
2 -> 3 ;
4 [label="gini = 0.0\nsamples = 33\nvalue = [0, 44, 0]\nclass = versicolor", fillcolor="#39e581"] ;
3 -> 4 ;
5 [label="gini = 0.0\nsamples = 3\nvalue = [0, 0, 6]\nclass = virginica", fillcolor="#8139e5"] ;
3 -> 5 ;
6 [label="gini = 0.0\nsamples = 33\nvalue = [0, 0, 55]\nclass = virginica", fillcolor="#8139e5"] ;
2 -> 6 ;
}